<?xml version="1.0"?>
<opencv_storage>
<cascade>
  <stageType>BOOST</stageType>
  <featureType>HAAR</featureType>
  <height>48</height>
  <width>48</width>
  <stageParams>
    <boostType>GAB</boostType>
    <minHitRate>9.9900001287460327e-01</minHitRate>
    <maxFalseAlarm>2.0000000298023224e-01</maxFalseAlarm>
    <weightTrimRate>9.4999999999999996e-01</weightTrimRate>
    <maxDepth>1</maxDepth>
    <maxWeakCount>100</maxWeakCount></stageParams>
  <featureParams>
    <maxCatCount>0</maxCatCount>
    <featSize>1</featSize>
    <mode>ALL</mode></featureParams>
  <stageNum>6</stageNum>
  <stages>
    <!-- stage 0 -->
    <_>
      <maxWeakCount>2</maxWeakCount>
      <stageThreshold>-3.1011391431093216e-02</stageThreshold>
      <weakClassifiers>
        <_>
          <internalNodes>
            0 -1 7 -1.0707576293498278e-03</internalNodes>
          <leafValues>
            -9.5570319890975952e-01 9.7475874423980713e-01</leafValues></_>
        <_>
          <internalNodes>
            0 -1 0 -3.6838836967945099e-03</internalNodes>
          <leafValues>
            9.2469179630279541e-01 -9.7558826208114624e-01</leafValues></_></weakClassifiers></_>
    <!-- stage 1 -->
    <_>
      <maxWeakCount>3</maxWeakCount>
      <stageThreshold>-9.8351126909255981e-01</stageThreshold>
      <weakClassifiers>
        <_>
          <internalNodes>
            0 -1 11 -1.7204547766596079e-03</internalNodes>
          <leafValues>
            9.5003676414489746e-01 -9.4825649261474609e-01</leafValues></_>
        <_>
          <internalNodes>
            0 -1 8 1.1177218984812498e-03</internalNodes>
          <leafValues>
            -9.3648356199264526e-01 8.9754301309585571e-01</leafValues></_>
        <_>
          <internalNodes>
            0 -1 1 -9.4878970412537456e-04</internalNodes>
          <leafValues>
            9.0122878551483154e-01 -9.4303447008132935e-01</leafValues></_></weakClassifiers></_>
    <!-- stage 2 -->
    <_>
      <maxWeakCount>2</maxWeakCount>
      <stageThreshold>-9.7636446356773376e-02</stageThreshold>
      <weakClassifiers>
        <_>
          <internalNodes>
            0 -1 14 5.3263166919350624e-03</internalNodes>
          <leafValues>
            -9.1894853115081787e-01 9.6409875154495239e-01</leafValues></_>
        <_>
          <internalNodes>
            0 -1 6 7.8904000110924244e-04</internalNodes>
          <leafValues>
            -9.7243148088455200e-01 8.2131206989288330e-01</leafValues></_></weakClassifiers></_>
    <!-- stage 3 -->
    <_>
      <maxWeakCount>4</maxWeakCount>
      <stageThreshold>-2.8598529100418091e-01</stageThreshold>
      <weakClassifiers>
        <_>
          <internalNodes>
            0 -1 4 -4.5048477477394044e-04</internalNodes>
          <leafValues>
            -8.6822527647018433e-01 9.6791446208953857e-01</leafValues></_>
        <_>
          <internalNodes>
            0 -1 12 2.1693618327844888e-04</internalNodes>
          <leafValues>
            -8.7268304824829102e-01 8.5069894790649414e-01</leafValues></_>
        <_>
          <internalNodes>
            0 -1 9 -2.5192466564476490e-03</internalNodes>
          <leafValues>
            -9.0410697460174561e-01 7.5433081388473511e-01</leafValues></_>
        <_>
          <internalNodes>
            0 -1 5 -1.7582019791007042e-04</internalNodes>
          <leafValues>
            7.0059221982955933e-01 -9.6461421251296997e-01</leafValues></_></weakClassifiers></_>
    <!-- stage 4 -->
    <_>
      <maxWeakCount>2</maxWeakCount>
      <stageThreshold>-5.8464497327804565e-02</stageThreshold>
      <weakClassifiers>
        <_>
          <internalNodes>
            0 -1 13 -9.4153787940740585e-03</internalNodes>
          <leafValues>
            9.3388432264328003e-01 -8.6289447546005249e-01</leafValues></_>
        <_>
          <internalNodes>
            0 -1 10 3.1193241011351347e-04</internalNodes>
          <leafValues>
            -9.4131708145141602e-01 8.0442994832992554e-01</leafValues></_></weakClassifiers></_>
    <!-- stage 5 -->
    <_>
      <maxWeakCount>2</maxWeakCount>
      <stageThreshold>-5.3364835679531097e-02</stageThreshold>
      <weakClassifiers>
        <_>
          <internalNodes>
            0 -1 3 1.9588729628594592e-05</internalNodes>
          <leafValues>
            -8.3823531866073608e-01 9.6147918701171875e-01</leafValues></_>
        <_>
          <internalNodes>
            0 -1 2 -5.7442393153905869e-04</internalNodes>
          <leafValues>
            7.8487044572830200e-01 -9.6092629432678223e-01</leafValues></_></weakClassifiers></_></stages>
  <features>
    <_>
      <rects>
        <_>
          14 12 2 27 -1.</_>
        <_>
          15 12 1 27 2.</_></rects>
      <tilted>0</tilted></_>
    <_>
      <rects>
        <_>
          14 28 2 8 -1.</_>
        <_>
          14 28 1 4 2.</_>
        <_>
          15 32 1 4 2.</_></rects>
      <tilted>0</tilted></_>
    <_>
      <rects>
        <_>
          14 38 2 3 -1.</_>
        <_>
          15 38 1 3 2.</_></rects>
      <tilted>0</tilted></_>
    <_>
      <rects>
        <_>
          15 24 18 1 -1.</_>
        <_>
          21 24 6 1 2.</_></rects>
      <tilted>0</tilted></_>
    <_>
      <rects>
        <_>
          16 18 15 1 -1.</_>
        <_>
          21 18 5 1 2.</_></rects>
      <tilted>0</tilted></_>
    <_>
      <rects>
        <_>
          17 13 1 2 -1.</_>
        <_>
          17 14 1 1 2.</_></rects>
      <tilted>0</tilted></_>
    <_>
      <rects>
        <_>
          18 10 8 2 -1.</_>
        <_>
          18 10 4 1 2.</_>
        <_>
          22 11 4 1 2.</_></rects>
      <tilted>0</tilted></_>
    <_>
      <rects>
        <_>
          22 21 1 9 -1.</_>
        <_>
          22 24 1 3 2.</_></rects>
      <tilted>0</tilted></_>
    <_>
      <rects>
        <_>
          22 42 9 2 -1.</_>
        <_>
          22 43 9 1 2.</_></rects>
      <tilted>0</tilted></_>
    <_>
      <rects>
        <_>
          23 13 4 3 -1.</_>
        <_>
          23 14 4 1 2.</_></rects>
      <tilted>0</tilted></_>
    <_>
      <rects>
        <_>
          23 42 2 2 -1.</_>
        <_>
          23 43 2 1 2.</_></rects>
      <tilted>0</tilted></_>
    <_>
      <rects>
        <_>
          24 10 16 2 -1.</_>
        <_>
          24 10 8 1 2.</_>
        <_>
          32 11 8 1 2.</_></rects>
      <tilted>0</tilted></_>
    <_>
      <rects>
        <_>
          30 42 1 2 -1.</_>
        <_>
          30 43 1 1 2.</_></rects>
      <tilted>0</tilted></_>
    <_>
      <rects>
        <_>
          36 12 4 29 -1.</_>
        <_>
          37 12 2 29 2.</_></rects>
      <tilted>0</tilted></_>
    <_>
      <rects>
        <_>
          38 11 2 30 -1.</_>
        <_>
          39 11 1 30 2.</_></rects>
      <tilted>0</tilted></_></features></cascade>
</opencv_storage>
