<?xml version="1.0"?>
<opencv_storage>
<stage5>
  <maxWeakCount>6</maxWeakCount>
  <stageThreshold>-8.0535560846328735e-01</stageThreshold>
  <weakClassifiers>
    <_>
      <internalNodes>
        0 -1 4170921 -1.3430632650852203e-02</internalNodes>
      <leafValues>
        9.1543024778366089e-01 -8.6917960643768311e-01</leafValues></_>
    <_>
      <internalNodes>
        0 -1 1207188 -9.7089301561936736e-05</internalNodes>
      <leafValues>
        7.0906955003738403e-01 -8.8749659061431885e-01</leafValues></_>
    <_>
      <internalNodes>
        0 -1 4215722 2.1274335449561477e-04</internalNodes>
      <leafValues>
        -9.0900862216949463e-01 5.9425657987594604e-01</leafValues></_>
    <_>
      <internalNodes>
        0 -1 1337933 -2.6717266882769763e-04</internalNodes>
      <leafValues>
        -7.9454946517944336e-01 7.7119809389114380e-01</leafValues></_>
    <_>
      <internalNodes>
        0 -1 3966323 5.4988516494631767e-03</internalNodes>
      <leafValues>
        -8.0010116100311279e-01 6.6822445392608643e-01</leafValues></_>
    <_>
      <internalNodes>
        0 -1 3972105 -2.9480424927896820e-06</internalNodes>
      <leafValues>
        4.8338904976844788e-01 -9.8458999395370483e-01</leafValues></_></weakClassifiers></stage5>
</opencv_storage>
