<?xml version="1.0"?>
<opencv_storage>
<cascade>
  <stageType>BOOST</stageType>
  <featureType>HAAR</featureType>
  <height>48</height>
  <width>48</width>
  <stageParams>
    <boostType>GAB</boostType>
    <minHitRate>9.9900001287460327e-01</minHitRate>
    <maxFalseAlarm>2.0000000298023224e-01</maxFalseAlarm>
    <weightTrimRate>9.4999999999999996e-01</weightTrimRate>
    <maxDepth>1</maxDepth>
    <maxWeakCount>100</maxWeakCount></stageParams>
  <featureParams>
    <maxCatCount>0</maxCatCount>
    <featSize>1</featSize>
    <mode>ALL</mode></featureParams>
  <stageNum>5</stageNum>
  <stages>
    <!-- stage 0 -->
    <_>
      <maxWeakCount>3</maxWeakCount>
      <stageThreshold>-9.8183244466781616e-01</stageThreshold>
      <weakClassifiers>
        <_>
          <internalNodes>
            0 -1 15 -5.5489625083282590e-04</internalNodes>
          <leafValues>
            -9.7972971200942993e-01 9.6916300058364868e-01</leafValues></_>
        <_>
          <internalNodes>
            0 -1 5 -1.1611803201958537e-03</internalNodes>
          <leafValues>
            -8.7258028984069824e-01 9.7947531938552856e-01</leafValues></_>
        <_>
          <internalNodes>
            0 -1 16 2.1342523396015167e-03</internalNodes>
          <leafValues>
            -9.7288757562637329e-01 8.7047755718231201e-01</leafValues></_></weakClassifiers></_>
    <!-- stage 1 -->
    <_>
      <maxWeakCount>3</maxWeakCount>
      <stageThreshold>-9.3963712453842163e-01</stageThreshold>
      <weakClassifiers>
        <_>
          <internalNodes>
            0 -1 4 -8.6743826977908611e-04</internalNodes>
          <leafValues>
            9.5157742500305176e-01 -9.5490419864654541e-01</leafValues></_>
        <_>
          <internalNodes>
            0 -1 14 1.6651414625812322e-05</internalNodes>
          <leafValues>
            -8.8261604309082031e-01 9.6636438369750977e-01</leafValues></_>
        <_>
          <internalNodes>
            0 -1 1 -1.2022716691717505e-03</internalNodes>
          <leafValues>
            8.9788311719894409e-01 -9.3265855312347412e-01</leafValues></_></weakClassifiers></_>
    <!-- stage 2 -->
    <_>
      <maxWeakCount>4</maxWeakCount>
      <stageThreshold>-1.0828368365764618e-01</stageThreshold>
      <weakClassifiers>
        <_>
          <internalNodes>
            0 -1 6 2.7576861612033099e-06</internalNodes>
          <leafValues>
            -8.6806285381317139e-01 9.8764479160308838e-01</leafValues></_>
        <_>
          <internalNodes>
            0 -1 10 3.5518181975930929e-03</internalNodes>
          <leafValues>
            -8.3915722370147705e-01 9.1005885601043701e-01</leafValues></_>
        <_>
          <internalNodes>
            0 -1 9 -2.4840133846737444e-04</internalNodes>
          <leafValues>
            8.2969439029693604e-01 -9.1476207971572876e-01</leafValues></_>
        <_>
          <internalNodes>
            0 -1 0 -2.2663101553916931e-03</internalNodes>
          <leafValues>
            -9.5885467529296875e-01 7.6924192905426025e-01</leafValues></_></weakClassifiers></_>
    <!-- stage 3 -->
    <_>
      <maxWeakCount>4</maxWeakCount>
      <stageThreshold>-3.2527434825897217e-01</stageThreshold>
      <weakClassifiers>
        <_>
          <internalNodes>
            0 -1 3 2.6325722046749434e-06</internalNodes>
          <leafValues>
            -8.3626943826675415e-01 9.7821009159088135e-01</leafValues></_>
        <_>
          <internalNodes>
            0 -1 17 4.8802685341797769e-04</internalNodes>
          <leafValues>
            -9.5263940095901489e-01 8.3042246103286743e-01</leafValues></_>
        <_>
          <internalNodes>
            0 -1 13 1.8047534395009279e-03</internalNodes>
          <leafValues>
            -8.9044862985610962e-01 8.0190396308898926e-01</leafValues></_>
        <_>
          <internalNodes>
            0 -1 8 3.5581784322857857e-04</internalNodes>
          <leafValues>
            -9.8380416631698608e-01 6.6173058748245239e-01</leafValues></_></weakClassifiers></_>
    <!-- stage 4 -->
    <_>
      <maxWeakCount>4</maxWeakCount>
      <stageThreshold>-1.7975696921348572e-01</stageThreshold>
      <weakClassifiers>
        <_>
          <internalNodes>
            0 -1 2 -7.6638057362288237e-04</internalNodes>
          <leafValues>
            -9.1479820013046265e-01 9.3225330114364624e-01</leafValues></_>
        <_>
          <internalNodes>
            0 -1 12 9.0893736341968179e-05</internalNodes>
          <leafValues>
            -9.7233474254608154e-01 7.5519376993179321e-01</leafValues></_>
        <_>
          <internalNodes>
            0 -1 7 -1.3961914181709290e-01</internalNodes>
          <leafValues>
            9.1875618696212769e-01 -7.2243738174438477e-01</leafValues></_>
        <_>
          <internalNodes>
            0 -1 11 -7.0727674756199121e-04</internalNodes>
          <leafValues>
            7.0581012964248657e-01 -9.3890875577926636e-01</leafValues></_></weakClassifiers></_></stages>
  <features>
    <_>
      <rects>
        <_>
          5 29 3 3 -1.</_>
        <_>
          6 29 1 3 2.</_></rects>
      <tilted>0</tilted></_>
    <_>
      <rects>
        <_>
          6 29 2 11 -1.</_>
        <_>
          7 29 1 11 2.</_></rects>
      <tilted>0</tilted></_>
    <_>
      <rects>
        <_>
          11 34 6 3 -1.</_>
        <_>
          13 34 2 3 2.</_></rects>
      <tilted>0</tilted></_>
    <_>
      <rects>
        <_>
          13 25 2 6 -1.</_>
        <_>
          13 27 2 2 2.</_></rects>
      <tilted>0</tilted></_>
    <_>
      <rects>
        <_>
          13 31 2 8 -1.</_>
        <_>
          13 31 1 4 2.</_>
        <_>
          14 35 1 4 2.</_></rects>
      <tilted>0</tilted></_>
    <_>
      <rects>
        <_>
          18 15 1 9 -1.</_>
        <_>
          18 18 1 3 2.</_></rects>
      <tilted>0</tilted></_>
    <_>
      <rects>
        <_>
          18 16 2 6 -1.</_>
        <_>
          18 18 2 2 2.</_></rects>
      <tilted>0</tilted></_>
    <_>
      <rects>
        <_>
          20 3 28 17 -1.</_>
        <_>
          27 10 14 17 2.</_></rects>
      <tilted>1</tilted></_>
    <_>
      <rects>
        <_>
          22 14 4 2 -1.</_>
        <_>
          23 14 2 2 2.</_></rects>
      <tilted>0</tilted></_>
    <_>
      <rects>
        <_>
          25 10 1 4 -1.</_>
        <_>
          25 11 1 2 2.</_></rects>
      <tilted>0</tilted></_>
    <_>
      <rects>
        <_>
          25 15 3 7 -1.</_>
        <_>
          26 16 1 7 3.</_></rects>
      <tilted>1</tilted></_>
    <_>
      <rects>
        <_>
          28 12 2 4 -1.</_>
        <_>
          28 13 2 2 2.</_></rects>
      <tilted>0</tilted></_>
    <_>
      <rects>
        <_>
          28 35 1 2 -1.</_>
        <_>
          28 36 1 1 2.</_></rects>
      <tilted>0</tilted></_>
    <_>
      <rects>
        <_>
          29 15 12 2 -1.</_>
        <_>
          29 15 6 1 2.</_>
        <_>
          35 16 6 1 2.</_></rects>
      <tilted>0</tilted></_>
    <_>
      <rects>
        <_>
          30 12 1 6 -1.</_>
        <_>
          30 14 1 2 2.</_></rects>
      <tilted>0</tilted></_>
    <_>
      <rects>
        <_>
          32 12 1 6 -1.</_>
        <_>
          32 14 1 2 2.</_></rects>
      <tilted>0</tilted></_>
    <_>
      <rects>
        <_>
          38 14 7 3 -1.</_>
        <_>
          37 15 7 1 3.</_></rects>
      <tilted>1</tilted></_>
    <_>
      <rects>
        <_>
          42 26 2 4 -1.</_>
        <_>
          43 26 1 4 2.</_></rects>
      <tilted>0</tilted></_></features></cascade>
</opencv_storage>
